{"sizes":[128,2,2],"layers":[{"0":{},"1":{},"2":{},"3":{},"4":{},"5":{},"6":{},"7":{},"8":{},"9":{},"10":{},"11":{},"12":{},"13":{},"14":{},"15":{},"16":{},"17":{},"18":{},"19":{},"20":{},"21":{},"22":{},"23":{},"24":{},"25":{},"26":{},"27":{},"28":{},"29":{},"30":{},"31":{},"32":{},"33":{},"34":{},"35":{},"36":{},"37":{},"38":{},"39":{},"40":{},"41":{},"42":{},"43":{},"44":{},"45":{},"46":{},"47":{},"48":{},"49":{},"50":{},"51":{},"52":{},"53":{},"54":{},"55":{},"56":{},"57":{},"58":{},"59":{},"60":{},"61":{},"62":{},"63":{},"64":{},"65":{},"66":{},"67":{},"68":{},"69":{},"70":{},"71":{},"72":{},"73":{},"74":{},"75":{},"76":{},"77":{},"78":{},"79":{},"80":{},"81":{},"82":{},"83":{},"84":{},"85":{},"86":{},"87":{},"88":{},"89":{},"90":{},"91":{},"92":{},"93":{},"94":{},"95":{},"96":{},"97":{},"98":{},"99":{},"100":{},"101":{},"102":{},"103":{},"104":{},"105":{},"106":{},"107":{},"108":{},"109":{},"110":{},"111":{},"112":{},"113":{},"114":{},"115":{},"116":{},"117":{},"118":{},"119":{},"120":{},"121":{},"122":{},"123":{},"124":{},"125":{},"126":{},"127":{}},{"0":{"bias":-0.28148362040519714,"weights":{"0":0.036937862634658813,"1":0.18222884833812714,"2":0.7309066653251648,"3":0.49160483479499817,"4":-0.5559438467025757,"5":-0.5973740220069885,"6":0.48528996109962463,"7":-0.5760040283203125,"8":0.15258614718914032,"9":-0.5852088928222656,"10":0.3845518231391907,"11":-0.3491799235343933,"12":0.08316940069198608,"13":-0.34480899572372437,"14":-0.644193172454834,"15":0.14706145226955414,"16":0.2297254204750061,"17":0.39315590262413025,"18":-0.4871632754802704,"19":-0.5533908009529114,"20":0.05314049869775772,"21":-0.5179372429847717,"22":-0.9280021786689758,"23":-0.07371095567941666,"24":-0.5743036270141602,"25":0.3554086685180664,"26":-0.5424438118934631,"27":0.1169728934764862,"28":0.33647629618644714,"29":-0.6836775541305542,"30":0.13583239912986755,"31":-0.8025898337364197,"32":-0.10789133608341217,"33":-0.11893875896930695,"34":-0.13256743550300598,"35":0.8877681493759155,"36":1.4356558322906494,"37":1.889509677886963,"38":0.983818531036377,"39":0.8121741414070129,"40":1.4469881057739258,"41":0.6826395392417908,"42":0.8320733904838562,"43":-0.05671755596995354,"44":-0.5072218179702759,"45":-0.8445789813995361,"46":-0.8379156589508057,"47":0.8070706725120544,"48":-0.37958788871765137,"49":0.320944607257843,"50":-0.4736121892929077,"51":-0.1680983453989029,"52":-0.5713739395141602,"53":-0.11055713891983032,"54":0.08241155743598938,"55":0.22396746277809143,"56":0.1399054378271103,"57":-0.9315372109413147,"58":-0.25943440198898315,"59":-0.17938321828842163,"60":0.8222255706787109,"61":-0.49666979908943176,"62":-0.3720160722732544,"63":0.18575124442577362,"64":-0.022158430889248848,"65":-0.16592943668365479,"66":0.5770924091339111,"67":0.45575493574142456,"68":-0.5892717242240906,"69":-0.1523859053850174,"70":-0.16246238350868225,"71":0.20844832062721252,"72":-0.2136213630437851,"73":0.153020977973938,"74":-0.08346564322710037,"75":0.47943899035453796,"76":-0.2288874387741089,"77":0.2172168493270874,"78":0.7146068811416626,"79":-0.3734821677207947,"80":0.19378554821014404,"81":1.1299268007278442,"82":-0.27885136008262634,"83":0.47365784645080566,"84":0.8814099431037903,"85":0.5496079921722412,"86":0.8155873417854309,"87":-0.016848472878336906,"88":0.4390151798725128,"89":-0.11313873529434204,"90":-0.17416031658649445,"91":0.4231741428375244,"92":-0.025656813755631447,"93":0.11713723093271255,"94":-0.48880285024642944,"95":-0.2870616018772125,"96":-0.5619757175445557,"97":-0.09919250756502151,"98":-0.5613528490066528,"99":0.03896789252758026,"100":1.2941094636917114,"101":-0.1641259491443634,"102":0.20389163494110107,"103":-0.29247111082077026,"104":-1.10527765750885,"105":-0.7639122605323792,"106":-0.2835024297237396,"107":-0.3875943422317505,"108":0.646550714969635,"109":0.36229389905929565,"110":0.21935464441776276,"111":0.42487290501594543,"112":1.3258894681930542,"113":0.6390309929847717,"114":0.8679033517837524,"115":0.531962513923645,"116":0.5718980431556702,"117":-0.5754119157791138,"118":-0.38459980487823486,"119":0.2178208976984024,"120":0.016698792576789856,"121":-0.508391797542572,"122":-0.2867525815963745,"123":0.16846120357513428,"124":0.6386380791664124,"125":-0.621825098991394,"126":-0.7554929852485657,"127":-1.102302074432373}},"1":{"bias":-0.033805303275585175,"weights":{"0":0.04991816729307175,"1":0.1632000207901001,"2":0.35315608978271484,"3":0.14731574058532715,"4":-0.6044971346855164,"5":-0.3748462498188019,"6":0.045973289757966995,"7":-0.3393093943595886,"8":0.16710670292377472,"9":-0.35418835282325745,"10":0.17405004799365997,"11":-0.3358473777770996,"12":0.20071658492088318,"13":-0.11890295147895813,"14":-0.3081445097923279,"15":0.35605165362358093,"16":0.38146376609802246,"17":0.12410253286361694,"18":-0.2416120171546936,"19":-0.534307062625885,"20":0.36717844009399414,"21":-0.21507036685943604,"22":-0.6360167264938354,"23":-0.22905346751213074,"24":-0.30228832364082336,"25":0.25459685921669006,"26":-0.14671002328395844,"27":-0.13407613337039948,"28":0.0696864128112793,"29":-0.4347259998321533,"30":0.23641762137413025,"31":-0.38182565569877625,"32":-0.06286673247814178,"33":-0.1738964319229126,"34":-0.15143823623657227,"35":0.5969495177268982,"36":0.8317095637321472,"37":1.0921412706375122,"38":0.8231159448623657,"39":0.4366931915283203,"40":0.8703376650810242,"41":0.38400328159332275,"42":0.6967756152153015,"43":0.059382010251283646,"44":-0.35260942578315735,"45":-0.3341926038265228,"46":-0.5227197408676147,"47":0.3978938162326813,"48":-0.4604746997356415,"49":0.4501049518585205,"50":-0.24893267452716827,"51":-0.29644155502319336,"52":-0.120613232254982,"53":0.08601179718971252,"54":0.05008135735988617,"55":0.13585051894187927,"56":-0.020126240327954292,"57":-0.6016332507133484,"58":-0.06953352689743042,"59":-0.12329818308353424,"60":0.29283788800239563,"61":-0.20626603066921234,"62":-0.0723239853978157,"63":0.048262208700180054,"64":-0.22013913094997406,"65":-0.313029944896698,"66":0.1567477136850357,"67":0.34620535373687744,"68":-0.3695380687713623,"69":0.17819368839263916,"70":-0.04549967497587204,"71":0.3471251130104065,"72":-0.023420248180627823,"73":-0.11277452856302261,"74":-0.0935572162270546,"75":0.2060902714729309,"76":-0.36875030398368835,"77":0.019505467265844345,"78":0.6064526438713074,"79":-0.45861107110977173,"80":0.2984919250011444,"81":0.4912125766277313,"82":-0.2842206656932831,"83":0.3632553517818451,"84":0.7514832615852356,"85":0.32403531670570374,"86":0.46933743357658386,"87":-0.16864793002605438,"88":0.09904853999614716,"89":-0.0802607461810112,"90":-0.09586764872074127,"91":0.11653418093919754,"92":-0.21017251908779144,"93":0.12517422437667847,"94":-0.19181618094444275,"95":-0.10080953687429428,"96":-0.48649972677230835,"97":-0.19762344658374786,"98":-0.18073958158493042,"99":0.0011417403584346175,"100":0.7572488188743591,"101":-0.16595672070980072,"102":0.2824294865131378,"103":-0.40494778752326965,"104":-0.5351976156234741,"105":-0.5976487994194031,"106":-0.2796769440174103,"107":-0.10271371901035309,"108":0.6216902136802673,"109":0.03458533063530922,"110":0.20306754112243652,"111":0.23657181859016418,"112":0.5630539655685425,"113":0.3274742364883423,"114":0.28078165650367737,"115":0.532224178314209,"116":0.4478221833705902,"117":-0.36018800735473633,"118":-0.025552991777658463,"119":0.3745820224285126,"120":-0.1452966183423996,"121":-0.32301416993141174,"122":-0.4034287929534912,"123":0.007903468795120716,"124":0.32941657304763794,"125":-0.45009365677833557,"126":-0.5504645109176636,"127":-0.4940376281738281}}},{"ACDC":{"bias":3.400303363800049,"weights":{"0":-5.444997310638428,"1":-2.5368616580963135}},"LeeKernaghan":{"bias":-3.398380756378174,"weights":{"0":5.522157669067383,"1":2.449432611465454}}}],"outputLookup":true,"inputLookup":false,"activation":"sigmoid","trainOpts":{"iterations":20000,"errorThresh":0.001,"log":true,"logPeriod":1,"learningRate":0.1,"momentum":0.1,"callbackPeriod":10}}